{"sizes":[13,12,12,6],"layers":[{"breathing problem":{},"chest pain":{},"cold":{},"cough":{},"dizziness":{},"fatigue":{},"fever":{},"headache":{},"high bp":{},"high sugar":{},"loose motion":{},"stomach pain":{},"vomiting":{}},{"0":{"bias":0.16251586377620697,"weights":{"breathing problem":0.6036620736122131,"chest pain":0.6106550097465515,"cold":-0.4217897951602936,"cough":-0.4257920980453491,"dizziness":0.4843294024467468,"fatigue":0.9975892901420593,"fever":-0.6415348052978516,"headache":-0.12216045707464218,"high bp":0.6289603114128113,"high sugar":0.9265041351318359,"loose motion":-1.271816372871399,"stomach pain":-1.3746696710586548,"vomiting":-0.18067173659801483}},"1":{"bias":-0.10996339470148087,"weights":{"breathing problem":1.3846137523651123,"chest pain":1.4354326725006104,"cold":-1.0775343179702759,"cough":-1.1746907234191895,"dizziness":0.44442710280418396,"fatigue":-0.0303756482899189,"fever":-1.2595031261444092,"headache":-0.5709837675094604,"high bp":0.373092919588089,"high sugar":-0.01570378802716732,"loose motion":0.5412938594818115,"stomach pain":0.5347439646720886,"vomiting":-0.6284547448158264}},"2":{"bias":-0.03719790652394295,"weights":{"breathing problem":-1.1567381620407104,"chest pain":-1.0588737726211548,"cold":0.9157717227935791,"cough":1.0006306171417236,"dizziness":-1.0708858966827393,"fatigue":-0.34704169631004333,"fever":0.9513337016105652,"headache":0.5280985832214355,"high bp":-1.0305529832839966,"high sugar":-0.2597084641456604,"loose motion":1.093380331993103,"stomach pain":0.8754612803459167,"vomiting":0.7725915908813477}},"3":{"bias":0.07434649020433426,"weights":{"breathing problem":1.0041563510894775,"chest pain":0.8737133741378784,"cold":-0.8556253910064697,"cough":-0.7158862948417664,"dizziness":1.6066571474075317,"fatigue":1.0833700895309448,"fever":-0.952300488948822,"headache":-1.901066541671753,"high bp":1.5796611309051514,"high sugar":1.0596818923950195,"loose motion":-0.7110527753829956,"stomach pain":-0.728157103061676,"vomiting":-1.868931770324707}},"4":{"bias":-0.32598719000816345,"weights":{"breathing problem":1.2297579050064087,"chest pain":1.2330217361450195,"cold":-1.0286211967468262,"cough":-0.9303721785545349,"dizziness":0.2654801607131958,"fatigue":-0.3710041642189026,"fever":-1.1809793710708618,"headache":-1.1908212900161743,"high bp":0.27849796414375305,"high sugar":-0.43991097807884216,"loose motion":1.4643008708953857,"stomach pain":1.4579501152038574,"vomiting":-1.0985205173492432}},"5":{"bias":0.05870138108730316,"weights":{"breathing problem":1.0119181871414185,"chest pain":0.9802121520042419,"cold":-0.8338911533355713,"cough":-0.805414617061615,"dizziness":-1.2763807773590088,"fatigue":0.5243651270866394,"fever":-1.1448651552200317,"headache":1.2744572162628174,"high bp":-1.0751243829727173,"high sugar":0.5463823676109314,"loose motion":-0.3258186876773834,"stomach pain":-0.34154680371284485,"vomiting":1.2678693532943726}},"6":{"bias":0.17352813482284546,"weights":{"breathing problem":-1.5133450031280518,"chest pain":-1.6292635202407837,"cold":1.3784834146499634,"cough":1.4157538414001465,"dizziness":0.6900181770324707,"fatigue":0.6768640279769897,"fever":1.485792636871338,"headache":-0.327928751707077,"high bp":0.7196137309074402,"high sugar":0.5658339262008667,"loose motion":-0.8924691081047058,"stomach pain":-0.974955141544342,"vomiting":-0.5030456185340881}},"7":{"bias":0.09827987849712372,"weights":{"breathing problem":0.3481564223766327,"chest pain":0.2283383011817932,"cold":-0.3723825514316559,"cough":-0.43344682455062866,"dizziness":-1.5999258756637573,"fatigue":-0.411945641040802,"fever":-0.28419917821884155,"headache":1.0482048988342285,"high bp":-1.4660362005233765,"high sugar":-0.5903878211975098,"loose motion":1.077437400817871,"stomach pain":1.2689722776412964,"vomiting":1.1649547815322876}},"8":{"bias":-0.07922998815774918,"weights":{"breathing problem":0.959101676940918,"chest pain":0.9393476843833923,"cold":-0.8765231966972351,"cough":-0.8493003845214844,"dizziness":1.135961651802063,"fatigue":-0.8103991746902466,"fever":-0.9468660354614258,"headache":-1.159416913986206,"high bp":1.1498112678527832,"high sugar":-0.8727909922599792,"loose motion":0.8429268002510071,"stomach pain":0.8967875838279724,"vomiting":-1.2403078079223633}},"9":{"bias":0.08554638922214508,"weights":{"breathing problem":-1.7857214212417603,"chest pain":-1.5267143249511719,"cold":1.4532636404037476,"cough":1.4971654415130615,"dizziness":0.04286574572324753,"fatigue":0.41145244240760803,"fever":1.7156758308410645,"headache":-1.1311941146850586,"high bp":0.13956956565380096,"high sugar":0.3910369575023651,"loose motion":0.5450775623321533,"stomach pain":0.680631160736084,"vomiting":-1.111698865890503}},"10":{"bias":-0.04698483645915985,"weights":{"breathing problem":-0.8232738971710205,"chest pain":-0.7240234613418579,"cold":0.5835447311401367,"cough":0.6983715891838074,"dizziness":0.9639826416969299,"fatigue":-0.6159850358963013,"fever":0.591471791267395,"headache":-1.3742125034332275,"high bp":0.8026858568191528,"high sugar":-0.6319855451583862,"loose motion":1.0333902835845947,"stomach pain":1.2401758432388306,"vomiting":-1.4237412214279175}},"11":{"bias":0.19072064757347107,"weights":{"breathing problem":0.5148532390594482,"chest pain":0.340842068195343,"cold":-0.8146647810935974,"cough":-0.6860249638557434,"dizziness":-1.2941615581512451,"fatigue":0.8290013670921326,"fever":-0.8117650151252747,"headache":1.0232545137405396,"high bp":-1.3176889419555664,"high sugar":0.7632923722267151,"loose motion":-0.07518226653337479,"stomach pain":0.09098214656114578,"vomiting":0.808582603931427}}},{"0":{"bias":-0.40681979060173035,"weights":{"0":0.06331630796194077,"1":1.0966581106185913,"2":-1.0441114902496338,"3":0.20062336325645447,"4":1.02583909034729,"5":1.1232266426086426,"6":-2.4258933067321777,"7":0.6581860184669495,"8":0.46486976742744446,"9":-2.300318956375122,"10":-1.2982258796691895,"11":0.6362857818603516}},"1":{"bias":0.2958371639251709,"weights":{"0":0.963966965675354,"1":-0.9198160171508789,"2":-0.230005145072937,"3":1.025266170501709,"4":-1.3765196800231934,"5":-1.0696778297424316,"6":2.2238664627075195,"7":-1.7218234539031982,"8":-0.30139029026031494,"9":1.425679326057434,"10":0.6266264319419861,"11":-1.0180580615997314}},"2":{"bias":-0.32364216446876526,"weights":{"0":-0.42227351665496826,"1":-0.7364367842674255,"2":0.6449995636940002,"3":-0.86215740442276,"4":-0.7262958884239197,"5":-0.5153247117996216,"6":0.696527361869812,"7":-0.20523278415203094,"8":-0.5672861337661743,"9":0.8304424285888672,"10":0.24294225871562958,"11":-0.6016479730606079}},"3":{"bias":-0.6975768208503723,"weights":{"0":1.10691499710083,"1":1.3530638217926025,"2":-2.3803136348724365,"3":2.0865437984466553,"4":0.7188892960548401,"5":-0.4409787952899933,"6":-0.7052561640739441,"7":-1.7455259561538696,"8":1.7838035821914673,"9":-2.017402410507202,"10":-0.09162510186433792,"11":-1.228952407836914}},"4":{"bias":-0.2350730299949646,"weights":{"0":-0.11806701868772507,"1":-0.08723840117454529,"2":0.2911387085914612,"3":-1.0465762615203857,"4":-0.5150854587554932,"5":0.48646679520606995,"6":-0.14979806542396545,"7":0.5329101085662842,"8":-0.036317117512226105,"9":-0.6365475654602051,"10":-0.5865062475204468,"11":-0.1481151133775711}},"5":{"bias":0.04907640814781189,"weights":{"0":0.5716442465782166,"1":-0.697694718837738,"2":0.18413154780864716,"3":-0.18920329213142395,"4":-1.0935726165771484,"5":-0.18794263899326324,"6":1.2379895448684692,"7":-0.4240645170211792,"8":-0.6054075956344604,"9":0.41020631790161133,"10":-0.2746429145336151,"11":-0.3876649737358093}},"6":{"bias":0.6280567049980164,"weights":{"0":1.6475768089294434,"1":-0.08943268656730652,"2":-0.40250059962272644,"3":-0.17545978724956512,"4":-1.463590145111084,"5":2.088024854660034,"6":0.1903935819864273,"7":0.4263211488723755,"8":-1.3159421682357788,"9":-1.666237711906433,"10":-2.2281455993652344,"11":1.672603726387024}},"7":{"bias":-0.3894520401954651,"weights":{"0":-1.13688063621521,"1":-0.2620263397693634,"2":0.3526389002799988,"3":0.141550675034523,"4":0.5631280541419983,"5":-2.012789011001587,"6":0.6252136826515198,"7":-0.524616003036499,"8":1.2495652437210083,"9":1.2940685749053955,"10":1.886947751045227,"11":-1.6768497228622437}},"8":{"bias":0.0851287767291069,"weights":{"0":-1.394266963005066,"1":0.13605819642543793,"2":1.396239161491394,"3":-2.993267297744751,"4":0.5358747243881226,"5":0.9335571527481079,"6":-1.4162384271621704,"7":2.30996036529541,"8":0.3209049105644226,"9":-1.0172964334487915,"10":0.11662047356367111,"11":0.48906004428863525}},"9":{"bias":0.16562019288539886,"weights":{"0":0.1539488285779953,"1":0.02909451723098755,"2":-0.2582979202270508,"3":-0.3178374171257019,"4":-0.27913564443588257,"5":0.7423542141914368,"6":-0.4459642767906189,"7":0.05117648467421532,"8":-0.06291642040014267,"9":-0.8927327990531921,"10":-0.8172034621238708,"11":0.5079639554023743}},"10":{"bias":-0.11433050781488419,"weights":{"0":-0.3956246078014374,"1":-1.6810959577560425,"2":0.7035409808158875,"3":-0.7917465567588806,"4":-1.6066974401474,"5":-0.9344444870948792,"6":1.6445618867874146,"7":-0.7825993299484253,"8":-1.261674165725708,"9":1.3523030281066895,"10":0.4229390323162079,"11":-0.7939193844795227}},"11":{"bias":0.4711545705795288,"weights":{"0":-0.5581092238426208,"1":-1.7249761819839478,"2":1.6664925813674927,"3":-2.6078450679779053,"4":-1.999859094619751,"5":0.22014200687408447,"6":1.279733419418335,"7":0.8649395108222961,"8":-1.9645652770996094,"9":1.0425424575805664,"10":-0.6227556467056274,"11":0.40011146664619446}}},{"Hypertension":{"bias":-0.6969144344329834,"weights":{"0":-1.9634578227996826,"1":1.5186874866485596,"2":-0.9595118165016174,"3":2.2555816173553467,"4":-0.7444050908088684,"5":-0.2540186643600464,"6":-1.873118281364441,"7":1.597252368927002,"8":-3.090881586074829,"9":-0.8734959363937378,"10":-1.0334075689315796,"11":-2.8669822216033936}},"Heart Disease":{"bias":-0.5178477764129639,"weights":{"0":2.6967976093292236,"1":-2.3369364738464355,"2":-1.332250714302063,"3":2.239413022994995,"4":-0.32243019342422485,"5":-1.0849878787994385,"6":0.48803073167800903,"7":-2.1487438678741455,"8":-0.43513813614845276,"9":0.0013562007807195187,"10":-2.3438222408294678,"11":-3.657575845718384}},"Migraine":{"bias":-2.650902032852173,"weights":{"0":-1.1150354146957397,"1":-1.8899695873260498,"2":-0.5496032238006592,"3":-2.656123638153076,"4":0.6448761224746704,"5":-0.1928100734949112,"6":2.1448616981506348,"7":-3.0410268306732178,"8":1.7735148668289185,"9":0.3634774386882782,"10":-0.9429728388786316,"11":2.7569539546966553}},"Food Poisoning":{"bias":0.9675557017326355,"weights":{"0":-0.8491876721382141,"1":-2.4142162799835205,"2":-0.5730397701263428,"3":-2.181166172027588,"4":-0.4670007824897766,"5":-1.65556001663208,"6":-3.2389721870422363,"7":1.7617465257644653,"8":2.4510345458984375,"9":-0.7836347818374634,"10":-1.973130226135254,"11":-0.7688575983047485}},"Flu":{"bias":-2.0633530616760254,"weights":{"0":-3.4765403270721436,"1":1.4121930599212646,"2":0.6240288019180298,"3":-3.3401806354522705,"4":-0.6035546660423279,"5":0.5816437005996704,"6":-1.755843997001648,"7":0.6244601011276245,"8":-1.4992679357528687,"9":-1.505133867263794,"10":2.139206647872925,"11":2.337433338165283}},"Diabetes":{"bias":0.4308488965034485,"weights":{"0":-1.8674803972244263,"1":0.9572516679763794,"2":-0.8954713344573975,"3":-2.0207526683807373,"4":-0.9381645321846008,"5":0.2441723644733429,"6":2.408536195755005,"7":-1.7885494232177734,"8":-3.249079704284668,"9":-0.09772834181785583,"10":-1.0881903171539307,"11":-0.5551691651344299}}}],"outputLookup":true,"inputLookup":true,"activation":"sigmoid","trainOpts":{"iterations":2000,"errorThresh":0.005,"log":true,"logPeriod":100,"learningRate":0.3,"momentum":0.1,"callbackPeriod":10,"beta1":0.9,"beta2":0.999,"epsilon":1e-8}}